svm_type c_svc
kernel_type linear
nr_class 2
total_sv 356
rho -0.148702
label 0 1
nr_sv 178 178
SV
1 1:133.66666 2:91.333336 3:1.6666666 4:2.3333333 
1 1:45.941177 2:36 3:1.9411764 4:0 
1 1:173 2:107.25 3:0 4:6.25 
1 1:20.333332 2:15 3:0.33333334 4:1 
1 1:124 2:74 3:0 4:4 
1 1:43 2:41 3:2 4:0 
1 1:52 2:38 3:0 4:0 
1 1:77 2:39.555557 3:0 4:3.5555556 
1 1:23.844444 2:24 3:0.84444445 4:2 
1 1:51 2:30 3:0 4:0 
1 1:25 2:15 3:0 4:0 
1 1:105 2:137 3:0 4:0 
1 1:76.4 2:49 3:0.4 4:2 
1 1:45 2:31 3:0 4:0 
1 1:39 2:15 3:0 4:0 
1 1:18 2:10 3:0 4:0 
1 1:55.736843 2:40 3:0.7368421 4:0 
1 1:19 2:17 3:0 4:0 
1 1:36.785713 2:24 3:0.78571427 4:0 
1 1:41 2:21.25 3:0 4:0.25 
1 1:17 2:9 3:0 4:0 
1 1:20.428572 2:10.285714 3:1.4285715 4:0.2857143 
1 1:31 2:12.25 3:0 4:0.25 
1 1:21 2:18 3:0 4:2 
1 1:24.941177 2:11 3:1.9411764 4:0 
1 1:30 2:12.2 3:0 4:1.2 
1 1:15 2:1 3:0 4:0 
1 1:6 2:14 3:0 4:0 
1 1:3.25 2:1.5 3:0.25 4:0.5 
1 1:13.736842 2:4 3:0.7368421 4:0 
1 1:28.5 2:10 3:0.5 4:0 
1 1:23 2:7 3:0 4:0 
1 1:8 2:1 3:2 4:0 
1 1:85 2:156 3:0 4:2 
1 1:54 2:27 3:0 4:2 
1 1:46 2:25 3:0 4:0 
1 1:46 2:41.666668 3:0 4:0.6666667 
1 1:74 2:38 3:0 4:2 
1 1:31.666666 2:21 3:1.6666666 4:0 
1 1:16.666668 2:24.333334 3:1.6666666 4:0.33333334 
1 1:49 2:23.25 3:0 4:0.25 
1 1:32 2:17 3:0 4:0 
1 1:88 2:62 3:0 4:2 
1 1:9 2:4 3:0 4:0 
1 1:57 2:155 3:0 4:2 
1 1:62 2:37 3:0 4:0 
1 1:78 2:52 3:0 4:2 
1 1:57.406975 2:42 3:3.4069767 4:0 
1 1:35 2:21 3:0 4:0 
1 1:20.941177 2:10 3:1.9411764 4:0 
1 1:72 2:46 3:1 4:1 
1 1:111 2:75 3:2 4:2 
1 1:34 2:13.25 3:0 4:1.25 
1 1:12 2:5 3:0 4:0 
1 1:14.25 2:5.25 3:1.25 4:0.25 
1 1:48 2:132 3:0 4:0 
1 1:42 2:22.333334 3:0 4:1.3333334 
1 1:63.25 2:27.25 3:1.25 4:4.25 
1 1:62 2:42 3:0 4:0 
1 1:58 2:41.333332 3:0 4:1.3333334 
1 1:21.25 2:12 3:2.25 4:0 
1 1:20 2:11 3:0 4:0 
1 1:41 2:29 3:0 4:2 
1 1:15 2:3 3:0 4:0 
1 1:14 2:12 3:0 4:0 
1 1:46.761906 2:126 3:0.7619048 4:0 
1 1:13 2:15 3:0 4:0 
1 1:52 2:43 3:0 4:0 
1 1:19 2:8 3:0 4:0 
1 1:15.75 2:6 3:1.75 4:0 
1 1:49 2:127 3:0 4:0 
1 1:9 2:5 3:0 4:0 
1 1:17.88889 2:14 3:1.8888888 4:0 
1 1:54 2:42 3:0 4:0 
1 1:45 2:31 3:0 4:0 
1 1:42 2:21 3:0 4:0 
1 1:36 2:20 3:0 4:0 
1 1:80 2:50 3:0 4:0 
1 1:165.00641 2:121.30128 3:1.0064102 4:2.301282 
1 1:112.81818 2:156.18182 3:1.8181819 4:0.18181819 
1 1:121.24 2:84.666664 3:0.24 4:2.6666667 
0.3591965783493429 1:115.83333 2:84.16667 3:3.8333335 4:2.1666667 
1 1:104 2:171 3:0 4:0 
1 1:54 2:41 3:0 4:0 
1 1:42 2:30.809525 3:0 4:1.8095238 
1 1:6 2:0 3:0 4:0 
1 1:42.555557 2:53 3:1.5555556 4:2 
1 1:100 2:80 3:0 4:2 
1 1:51 2:54 3:2 4:0 
1 1:34 2:122 3:0 4:0 
1 1:106 2:72 3:0 4:2 
1 1:46.18182 2:36 3:1.1818181 4:0 
1 1:71.25 2:45.5 3:1.25 4:0.5 
1 1:55 2:35 3:0 4:0 
1 1:81 2:50 3:0 4:2 
1 1:45 2:26 3:0 4:0 
1 1:41.260002 2:25 3:2.26 4:0 
1 1:67 2:77.22222 3:0 4:0.22222222 
1 1:127 2:98.5 3:0 4:2.5 
1 1:93.240005 2:70.4762 3:0.24 4:2.4761906 
1 1:4 2:0 3:0 4:0 
1 1:54.50641 2:38.80128 3:0.50641024 4:0.80128205 
1 1:51 2:36 3:0 4:0 
1 1:69.81818 2:46 3:1.8181819 4:1 
1 1:48.875 2:34.125 3:1.875 4:0.125 
1 1:14.25 2:2 3:1.25 4:0 
1 1:20.24 2:2 3:1.24 4:1 
1 1:71 2:59 3:2 4:0 
1 1:116 2:74 3:0 4:4 
1 1:55 2:37 3:0 4:0 
1 1:53 2:46 3:0 4:0 
1 1:71.72727 2:47 3:0.72727275 4:0 
1 1:31 2:19 3:0 4:0 
1 1:95 2:63 3:0 4:0 
1 1:17 2:4 3:2 4:0 
1 1:42 2:24 3:0 4:0 
0.3081502459257092 1:29.5 2:8 3:0.5 4:0 
1 1:130.8 2:128.8 3:0.8 4:0.8 
1 1:29 2:12.25 3:0 4:0.25 
1 1:58.5 2:41 3:1.5 4:0 
1 1:3.2105262 2:8 3:0.21052632 4:0 
1 1:39 2:23 3:0 4:0 
1 1:116.5 2:76.5 3:0.5 4:2.5 
1 1:59 2:37 3:0 4:0 
1 1:28.5 2:19.25 3:0.5 4:0.25 
1 1:115.54546 2:78.84848 3:2.5454545 4:2.848485 
1 1:37 2:38.666668 3:0 4:0.6666667 
1 1:30 2:7 3:0 4:0 
1 1:11 2:4 3:0 4:0 
1 1:106.2 2:82.2 3:0.2 4:4.2 
1 1:79 2:49 3:0 4:2 
1 1:57.666668 2:37.333336 3:0.6666667 4:0.33333334 
1 1:120.75 2:95.75 3:0.75 4:2.75 
1 1:17 2:7 3:0 4:0 
1 1:59 2:34.25 3:0 4:0.25 
1 1:29 2:21 3:0 4:0 
1 1:67.66667 2:43 3:0.6666667 4:0 
1 1:18 2:3 3:0 4:0 
1 1:55 2:48 3:0 4:0 
1 1:18 2:3 3:0 4:0 
1 1:14.555555 2:10 3:1.5555556 4:0 
1 1:56 2:36 3:0 4:0 
1 1:123 2:186 3:0 4:4 
1 1:130.90698 2:100 3:3.9069767 4:2 
1 1:33 2:30 3:2 4:0 
1 1:92 2:63 3:0 4:0 
1 1:46.906975 2:40 3:3.9069767 4:0 
1 1:11 2:3 3:2 4:0 
1 1:18 2:2 3:0 4:0 
1 1:23.25 2:6.25 3:1.25 4:0.25 
1 1:12 2:3 3:2 4:0 
1 1:15.75 2:9.309524 3:0.75 4:2.3095238 
1 1:50 2:135 3:0 4:0 
1 1:71 2:142.5 3:0 4:0.5 
1 1:22 2:4 3:0 4:0 
1 1:48 2:37 3:0 4:0 
1 1:19 2:6 3:2 4:0 
1 1:10 2:5 3:0 4:0 
1 1:56.689392 2:159.5 3:2.689394 4:0.5 
1 1:82.68939 2:175.66667 3:2.689394 4:1.6666667 
1 1:19.333334 2:21.333332 3:0.33333334 4:1.3333334 
1 1:36 2:35 3:0 4:0 
1 1:61 2:40 3:0 4:0 
1 1:49.181816 2:35 3:1.1818181 4:0 
1 1:27.5 2:12.25 3:2.5 4:0.25 
1 1:36.333332 2:25 3:0.33333334 4:0 
1 1:44 2:132 3:0 4:0 
1 1:99.333336 2:94.66667 3:2.3333333 4:0.6666667 
1 1:96.333336 2:73.33333 3:2.3333333 4:3.3333335 
1 1:63 2:49 3:0 4:0 
1 1:49 2:23 3:0 4:0 
1 1:17.8 2:12.2 3:1.8 4:0.2 
1 1:19 2:13 3:2 4:0 
1 1:41 2:30.5 3:1 4:0.5 
1 1:39.333336 2:26.333332 3:2.3333333 4:1.3333334 
1 1:69 2:59 3:0 4:0 
1 1:46.906975 2:46 3:3.9069767 4:0 
1 1:43 2:30 3:0 4:0 
-1 1:180.5 2:75.5 3:3.5 4:0.5 
-1 1:0 2:13 3:0 4:0 
-1 1:5 2:12 3:0 4:0 
-1 1:178 2:102 3:2 4:0 
-1 1:6 2:20 3:0 4:2 
-1 1:162 2:72.93939 3:0 4:1.939394 
-1 1:26.285713 2:38.964287 3:0.2857143 4:1.9642857 
-1 1:2 2:24 3:0 4:0 
-1 1:4 2:32 3:2 4:0 
-1 1:0 2:9 3:0 4:2 
-1 1:16.25 2:36.75 3:0.25 4:0.75 
-1 1:7 2:25 3:0 4:0 
-1 1:41 2:56 3:2 4:0 
-1 1:0 2:4 3:0 4:0 
-1 1:5 2:15 3:0 4:0 
-1 1:168.5 2:84.5 3:0.5 4:0.5 
-1 1:169 2:93.94118 3:2 4:1.9411764 
-0.4436999482155788 1:14.58089 2:45.173912 3:2.5808897 4:0.17391305 
-1 1:197 2:133 3:2 4:0 
-1 1:20 2:32 3:2 4:0 
-1 1:12.44031 2:30 3:4.44031 4:1 
-1 1:11 2:29 3:0 4:0 
-1 1:2 2:9 3:0 4:0 
-1 1:5 2:25 3:0 4:0 
-1 1:212.75 2:127 3:2.75 4:0 
-1 1:130 2:48 3:0 4:4 
-1 1:14 2:28.666668 3:2 4:2.6666667 
-1 1:6.25 2:24 3:0.25 4:1 
-1 1:12 2:23 3:0 4:0 
-1 1:11 2:19 3:0 4:0 
-1 1:2.4 2:15 3:0.4 4:0 
-1 1:18 2:20 3:0 4:0 
-1 1:12 2:15 3:0 4:0 
-1 1:2.4 2:12 3:0.4 4:0 
-1 1:18.5 2:24 3:2.5 4:0 
-1 1:10 2:15.925926 3:0 4:1.925926 
-1 1:4 2:16 3:0 4:0 
-1 1:7 2:12.75 3:1 4:0.75 
-1 1:20 2:24 3:0 4:0 
-1 1:3 2:16 3:0 4:0 
-1 1:45 2:47 3:0 4:2 
-1 1:3.25 2:7.25 3:0.25 4:0.25 
-1 1:1 2:5 3:0 4:0 
-1 1:5 2:21 3:2 4:2 
-1 1:43 2:44.22222 3:0 4:0.22222222 
-1 1:19 2:39 3:2 4:0 
-1 1:21.925926 2:27.074074 3:1.925926 4:0.074074075 
-1 1:19 2:30 3:0 4:0 
-1 1:66.5 2:67 3:0.5 4:2 
-1 1:1 2:16 3:0 4:2 
-1 1:2 2:18 3:0 4:2 
-1 1:1 2:12 3:0 4:0 
-1 1:0 2:3 3:0 4:0 
-1 1:2.4 2:15.6 3:0.4 4:1.6 
-1 1:4 2:21 3:2 4:0 
-1 1:141 2:62 3:0 4:0 
-1 1:24.906977 2:48 3:1.9069767 4:0 
-1 1:28.4 2:36 3:0.4 4:0 
-1 1:62 2:73 3:0 4:0 
-1 1:10.7 2:21.133333 3:0.7 4:0.13333334 
-1 1:1.2 2:20.2 3:0.2 4:0.2 
-1 1:23 2:24 3:0 4:0 
-1 1:163 2:84 3:0 4:0 
-1 1:22 2:24 3:0 4:0 
-1 1:5.2 2:17.2 3:0.2 4:0.2 
-1 1:0 2:14 3:0 4:2 
-1 1:42 2:60.5 3:1 4:0.5 
-1 1:14.25 2:34.5 3:0.25 4:0.5 
-1 1:7.939394 2:36 3:1.939394 4:0 
-1 1:4 2:14 3:0 4:0 
-1 1:11 2:23 3:0 4:0 
-1 1:5 2:23.90909 3:0 4:0.90909094 
-1 1:8 2:21 3:0 4:0 
-1 1:4 2:11 3:0 4:2 
-1 1:25.666668 2:39.13333 3:0.6666667 4:0.13333334 
-1 1:2.25 2:8.25 3:0.25 4:2.25 
-1 1:4.939394 2:32 3:1.939394 4:0 
-1 1:12 2:28 3:0 4:0 
-1 1:36 2:50.8 3:2 4:0.8 
-1 1:1 2:9 3:0 4:0 
-1 1:8.5 2:19.166666 3:0.5 4:1.1666666 
-1 1:3.45 2:13.25 3:1.45 4:0.25 
-1 1:0 2:12 3:0 4:2 
-1 1:4 2:15 3:2 4:0 
-1 1:0 2:8 3:0 4:0 
-1 1:0 2:5.0588236 3:0 4:1.0588236 
-1 1:7.3333335 2:30.333334 3:2.3333333 4:1.3333334 
-1 1:0 2:13.888889 3:0 4:0.8888889 
-1 1:0 2:6 3:0 4:2 
-1 1:0 2:4 3:0 4:0 
-1 1:211 2:109 3:0 4:0 
-1 1:5.25 2:17.5 3:0.25 4:2.5 
-1 1:28 2:44 3:0 4:0 
-1 1:8 2:9 3:0 4:0 
-1 1:0 2:10 3:0 4:0 
-1 1:0 2:4 3:0 4:0 
-1 1:0 2:5 3:0 4:2 
-1 1:0 2:10 3:0 4:0 
-1 1:137.25 2:55 3:0.25 4:0 
-1 1:9.75 2:25.5 3:0.75 4:0.5 
-1 1:45.25 2:40 3:1.25 4:2 
-1 1:2.9166667 2:13.583333 3:0.9166667 4:1.5833334 
-1 1:3.25 2:21.25 3:0.25 4:0.25 
-1 1:1.75 2:9.25 3:1.75 4:0.25 
-1 1:73.6 2:58 3:1.6 4:2 
-1 1:143 2:53 3:0 4:0 
-1 1:3 2:12 3:0 4:0 
-1 1:238.25 2:131.66666 3:0.25 4:4.666667 
-1 1:6.666667 2:21.333332 3:2.6666667 4:1.3333334 
-1 1:101.25 2:101.75 3:0.25 4:0.75 
-1 1:44 2:49 3:0 4:0 
-1 1:53 2:63 3:0 4:0 
-1 1:147 2:36.939392 3:0 4:1.939394 
-1 1:0.5263158 2:8.210526 3:0.5263158 4:0.21052632 
-1 1:182 2:85 3:0 4:0 
-1 1:42.555557 2:53 3:1.5555556 4:2 
-0.5503372244862405 1:57.2 2:73.2 3:0.2 4:0.2 
-1 1:100 2:80 3:0 4:2 
-1 1:195 2:113 3:0 4:2 
-1 1:10 2:22 3:0 4:2 
-1 1:51 2:54 3:2 4:0 
-1 1:2.9444444 2:10 3:1.9444444 4:0 
-1 1:47 2:62 3:0 4:0 
-1 1:8 2:18 3:0 4:0 
-1 1:40 2:51 3:1 4:0 
-1 1:8 2:24 3:0 4:0 
-1 1:1 2:17 3:0 4:2 
-0.6733096515733245 1:38 2:51.555557 3:0 4:1.5555556 
-1 1:37 2:52 3:0 4:0 
-1 1:172 2:111 3:0 4:0 
-1 1:0 2:18 3:0 4:2 
-1 1:2 2:20 3:2 4:0 
-1 1:11.142857 2:43 3:3.142857 4:0 
-1 1:193 2:115.55556 3:2 4:1.5555556 
-1 1:203 2:144 3:0 4:0 
-1 1:41 2:42 3:2 4:0 
-1 1:14 2:13 3:0 4:0 
-1 1:172.33333 2:103 3:1.3333334 4:0 
-1 1:6 2:16 3:0 4:2 
-1 1:193.25 2:127 3:2.25 4:0 
-1 1:242 2:180.11111 3:0 4:3.1111112 
-1 1:157 2:60 3:0 4:0 
-1 1:6 2:29 3:0 4:0 
-1 1:77 2:87 3:0 4:0 
-1 1:165.25 2:89.33333 3:0.25 4:0.33333334 
-1 1:9.333333 2:25.923077 3:0.33333334 4:0.9230769 
-1 1:19 2:29 3:0 4:0 
-1 1:0 2:16.5 3:0 4:1.5 
-1 1:34.906975 2:59 3:1.9069767 4:0 
-1 1:0 2:13 3:0 4:0 
-1 1:14.666667 2:38 3:0.6666667 4:0 
-1 1:10 2:18 3:0 4:0 
-1 1:9 2:16.222221 3:0 4:0.22222222 
-1 1:169.66667 2:100 3:0.6666667 4:0 
-1 1:5 2:25 3:0 4:0 
-1 1:24 2:39 3:0 4:0 
-1 1:151 2:62 3:0 4:0 
-1 1:184 2:125 3:2 4:0 
-1 1:127 2:54 3:0 4:0 
-1 1:40 2:34.666664 3:0 4:1.6666666 
-1 1:44 2:57 3:0 4:0 
-1 1:196.16667 2:131.75 3:1.1666667 4:0.75 
-1 1:263.3333 2:151.06061 3:1.3333334 4:1.0606061 
-1 1:186.13333 2:130.66666 3:2.1333334 4:0.6666667 
-1 1:190 2:105.93939 3:0 4:3.939394 
-1 1:24 2:32 3:0 4:0 
-1 1:12.878788 2:35 3:1.8787879 4:2 
-1 1:204 2:116.66666 3:2 4:2.6666667 
-1 1:8 2:31 3:0 4:0 
-1 1:188.5 2:114.75 3:6.5 4:0.75 
-1 1:14.573644 2:25.333334 3:2.5736434 4:1.3333334 
-1 1:182 2:113.2 3:2 4:3.2 
-1 1:3 2:23 3:0 4:0 
-1 1:47 2:58 3:0 4:0 
-1 1:153.2 2:76.2 3:0.2 4:0.2 
-1 1:24 2:32 3:0 4:0 
-1 1:17 2:35 3:0 4:0 
-1 1:25 2:37 3:0 4:2 
